digraph Tree {
node [shape=box, fontname="helvetica"] ;
edge [fontname="helvetica"] ;
0 [label="площадь <= 15.37\ngini = 0.664\nsamples = 168\nvalue = [50, 61, 57]"] ;
1 [label="площадь <= 13.435\ngini = 0.489\nsamples = 99\nvalue = [42, 0, 57]"] ;
0 -> 1 [labeldistance=2.5, labelangle=45, headlabel="True"] ;
2 [label="компактность <= 0.864\ngini = 0.271\nsamples = 68\nvalue = [11, 0, 57]"] ;
1 -> 2 ;
3 [label="площадь <= 12.715\ngini = 0.044\nsamples = 44\nvalue = [1, 0, 43]"] ;
2 -> 3 ;
4 [label="gini = 0.0\nsamples = 39\nvalue = [0, 0, 39]"] ;
3 -> 4 ;
5 [label="площадь <= 12.81\ngini = 0.32\nsamples = 5\nvalue = [1, 0, 4]"] ;
3 -> 5 ;
6 [label="gini = 0.0\nsamples = 1\nvalue = [1, 0, 0]"] ;
5 -> 6 ;
7 [label="gini = 0.0\nsamples = 4\nvalue = [0, 0, 4]"] ;
5 -> 7 ;
8 [label="площадь <= 12.84\ngini = 0.486\nsamples = 24\nvalue = [10, 0, 14]"] ;
2 -> 8 ;
9 [label="компактность <= 0.885\ngini = 0.415\nsamples = 17\nvalue = [5, 0, 12]"] ;
8 -> 9 ;
10 [label="компактность <= 0.866\ngini = 0.473\nsamples = 13\nvalue = [5, 0, 8]"] ;
9 -> 10 ;
11 [label="gini = 0.0\nsamples = 3\nvalue = [0, 0, 3]"] ;
10 -> 11 ;
12 [label="компактность <= 0.87\ngini = 0.5\nsamples = 10\nvalue = [5, 0, 5]"] ;
10 -> 12 ;
13 [label="gini = 0.375\nsamples = 4\nvalue = [3, 0, 1]"] ;
12 -> 13 ;
14 [label="gini = 0.444\nsamples = 6\nvalue = [2, 0, 4]"] ;
12 -> 14 ;
15 [label="gini = 0.0\nsamples = 4\nvalue = [0, 0, 4]"] ;
9 -> 15 ;
16 [label="площадь <= 13.18\ngini = 0.408\nsamples = 7\nvalue = [5, 0, 2]"] ;
8 -> 16 ;
17 [label="gini = 0.0\nsamples = 4\nvalue = [4, 0, 0]"] ;
16 -> 17 ;
18 [label="компактность <= 0.876\ngini = 0.444\nsamples = 3\nvalue = [1, 0, 2]"] ;
16 -> 18 ;
19 [label="gini = 0.0\nsamples = 1\nvalue = [1, 0, 0]"] ;
18 -> 19 ;
20 [label="gini = 0.0\nsamples = 2\nvalue = [0, 0, 2]"] ;
18 -> 20 ;
21 [label="gini = 0.0\nsamples = 31\nvalue = [31, 0, 0]"] ;
1 -> 21 ;
22 [label="площадь <= 17.1\ngini = 0.205\nsamples = 69\nvalue = [8, 61, 0]"] ;
0 -> 22 [labeldistance=2.5, labelangle=-45, headlabel="False"] ;
23 [label="компактность <= 0.872\ngini = 0.463\nsamples = 22\nvalue = [8, 14, 0]"] ;
22 -> 23 ;
24 [label="gini = 0.0\nsamples = 7\nvalue = [0, 7, 0]"] ;
23 -> 24 ;
25 [label="компактность <= 0.877\ngini = 0.498\nsamples = 15\nvalue = [8, 7, 0]"] ;
23 -> 25 ;
26 [label="gini = 0.0\nsamples = 2\nvalue = [2, 0, 0]"] ;
25 -> 26 ;
27 [label="компактность <= 0.887\ngini = 0.497\nsamples = 13\nvalue = [6, 7, 0]"] ;
25 -> 27 ;
28 [label="площадь <= 16.21\ngini = 0.408\nsamples = 7\nvalue = [2, 5, 0]"] ;
27 -> 28 ;
29 [label="площадь <= 15.53\ngini = 0.444\nsamples = 3\nvalue = [2, 1, 0]"] ;
28 -> 29 ;
30 [label="gini = 0.0\nsamples = 1\nvalue = [1, 0, 0]"] ;
29 -> 30 ;
31 [label="gini = 0.5\nsamples = 2\nvalue = [1, 1, 0]"] ;
29 -> 31 ;
32 [label="gini = 0.0\nsamples = 4\nvalue = [0, 4, 0]"] ;
28 -> 32 ;
33 [label="площадь <= 15.535\ngini = 0.444\nsamples = 6\nvalue = [4, 2, 0]"] ;
27 -> 33 ;
34 [label="gini = 0.0\nsamples = 1\nvalue = [0, 1, 0]"] ;
33 -> 34 ;
35 [label="компактность <= 0.906\ngini = 0.32\nsamples = 5\nvalue = [4, 1, 0]"] ;
33 -> 35 ;
36 [label="gini = 0.0\nsamples = 3\nvalue = [3, 0, 0]"] ;
35 -> 36 ;
37 [label="gini = 0.5\nsamples = 2\nvalue = [1, 1, 0]"] ;
35 -> 37 ;
38 [label="gini = 0.0\nsamples = 47\nvalue = [0, 47, 0]"] ;
22 -> 38 ;
}